<?xml version="1.0"?>
<opencv_storage>
<opencv_ml_svm>
  <format>3</format>
  <svmType>C_SVC</svmType>
  <kernel>
    <type>LINEAR</type></kernel>
  <C>1.</C>
  <term_criteria><iterations>1000</iterations></term_criteria>
  <var_count>448</var_count>
  <class_count>2</class_count>
  <class_labels type_id="opencv-matrix">
    <rows>2</rows>
    <cols>1</cols>
    <dt>i</dt>
    <data>
      -1 1</data></class_labels>
  <sv_total>1</sv_total>
  <support_vectors>
    <_>
      -5.42138629e-02 -2.13512476e-03 -1.58581045e-02 5.87226003e-02
      -8.73650163e-02 -3.59244674e-01 -3.00063919e-02 1.36765942e-01
      9.05024782e-02 2.79963929e-02 0. -1.49053290e-01 -3.93667743e-02
      -5.31959496e-02 -6.52483478e-03 2.03118175e-02 -6.38963729e-02
      -5.91613678e-03 -4.97796712e-03 -2.88515687e-02 1.31002860e-02
      5.19799814e-02 -3.77446339e-02 -1.90958474e-02 -1.98833384e-02
      -3.07080355e-02 2.61547044e-04 -8.72753188e-02 3.71632427e-02
      -2.26282068e-02 -6.28867187e-03 -4.52870913e-02 -3.03466655e-02
      -2.71830596e-02 -2.16102805e-02 1.62342954e-02 -4.98992167e-02
      -2.94117909e-02 8.92235190e-02 -7.92296696e-03 1.22720562e-02
      -2.53090402e-03 -2.82962229e-02 1.27426004e-02 -3.93667743e-02
      -5.31959496e-02 -6.52483478e-03 2.03118175e-02 -6.38963729e-02
      -5.91613678e-03 -4.97796712e-03 -2.88515687e-02 1.31002860e-02
      5.19799814e-02 -3.77446339e-02 -1.90958474e-02 -1.98833384e-02
      -3.07080355e-02 2.61547044e-04 -8.72753188e-02 3.71632427e-02
      -2.26282068e-02 -6.28867187e-03 -4.52870913e-02 -3.03466655e-02
      -2.71830596e-02 -2.16102805e-02 1.62342954e-02 -4.98992167e-02
      -2.94117909e-02 8.92235190e-02 -7.92296696e-03 1.22720562e-02
      -2.53090402e-03 -2.82962229e-02 1.27426004e-02 -2.08493024e-02
      3.08176801e-02 -1.91994663e-02 7.25714257e-03 -7.03318566e-02
      -2.82418840e-02 -1.38961915e-02 1.37209296e-02 1.83629338e-02
      -3.69916949e-03 -2.79241502e-02 8.22782889e-03 -3.05783730e-02
      -2.64046155e-02 -7.58386105e-02 3.05154938e-02 -1.76820401e-02
      1.07882144e-02 -3.86816785e-02 1.65529456e-03 -4.05802503e-02
      1.01518212e-03 -2.26396117e-02 5.48397750e-02 -2.44687255e-02
      1.05205495e-02 -1.47734741e-02 -3.63324247e-02 -1.79695580e-02
      1.65765472e-02 -4.16864827e-02 -2.42400095e-02 -1.93742849e-02
      -4.16080374e-03 -1.69142766e-03 -2.01148782e-02 -3.35819460e-02
      5.22100329e-02 -2.91057881e-02 -5.42798229e-02 1.38777234e-02
      -1.11700697e-02 5.46977529e-03 2.25785710e-02 -1.30170537e-02
      3.40405926e-02 9.67354886e-03 -2.73931981e-03 1.16325552e-02
      -2.22970899e-02 -6.74120560e-02 -9.96634457e-03 1.34694844e-03
      -4.26931195e-02 -7.16896355e-03 -1.63274370e-02 -5.95035031e-02
      3.37888524e-02 -2.08493024e-02 3.08176801e-02 -1.91994663e-02
      7.25714257e-03 -7.03318566e-02 -2.82418840e-02 -1.38961915e-02
      1.37209296e-02 1.83629338e-02 -3.69916949e-03 -2.79241502e-02
      8.22782889e-03 -3.05783730e-02 -2.64046155e-02 -7.58386105e-02
      3.05154938e-02 -1.76820401e-02 1.07882144e-02 -3.86816785e-02
      1.65529456e-03 -4.05802503e-02 1.01518212e-03 -2.26396117e-02
      5.48397750e-02 -2.44687255e-02 1.05205495e-02 -1.47734741e-02
      -3.63324247e-02 -1.79695580e-02 1.65765472e-02 -4.16864827e-02
      -2.42400095e-02 -1.93742849e-02 -4.16080374e-03 -1.69142766e-03
      -2.01148782e-02 -3.35819460e-02 5.22100329e-02 -2.91057881e-02
      -5.42798229e-02 1.38777234e-02 -1.11700697e-02 5.46977529e-03
      2.25785710e-02 -1.30170537e-02 3.40405926e-02 9.67354886e-03
      -2.73931981e-03 1.16325552e-02 -2.22970899e-02 -6.74120560e-02
      -9.96634457e-03 1.34694844e-03 -4.26931195e-02 -7.16896355e-03
      -1.63274370e-02 -5.95035031e-02 3.37888524e-02 1.45095261e-02
      -3.92549634e-02 2.29737852e-02 -6.50767460e-02 2.85251494e-02
      -3.00565641e-03 2.90242508e-02 3.00740637e-02 -3.39086503e-02
      2.92752758e-02 3.99468690e-02 6.35226071e-02 -4.69110906e-02
      -1.12180645e-02 -5.99527266e-04 2.04803571e-02 2.19884086e-02
      -1.68616492e-02 -1.96968056e-02 -1.44175207e-02 -2.31824424e-02
      1.54232001e-02 -1.64247453e-02 -8.16120580e-02 -4.99824770e-02
      8.23840033e-03 9.41101015e-02 -4.62516434e-02 2.29963437e-02
      -8.32502451e-03 1.49161275e-02 2.87528906e-04 -2.42594015e-02
      1.03146344e-01 8.48911423e-03 -3.10202688e-02 1.53180324e-02
      -3.19411121e-02 -2.90015955e-02 -6.74263090e-02 -4.71028835e-02
      -3.84723097e-02 6.96470786e-04 -7.62759149e-02 1.87319312e-02
      2.91986633e-02 -8.69391933e-02 8.37409794e-02 4.62301448e-03
      -4.45603095e-02 -4.46373262e-02 6.89651445e-02 -4.34033051e-02
      -2.71869563e-02 1.23888869e-02 -7.60023519e-02 -4.58359607e-02
      -5.48607111e-02 1.27551900e-02 -2.79601454e-03 -2.05685664e-02
      -4.34897803e-02 3.07004042e-02 4.79944274e-02 -2.37801578e-02
      -2.09294446e-02 -6.82722330e-02 5.57790091e-03 7.56639242e-03
      3.65812033e-02 -1.92203056e-02 -1.64407201e-03 -2.75643971e-02
      -3.52772176e-02 6.88355714e-02 1.49568692e-02 -8.04178789e-03
      -8.24126229e-02 2.06422023e-02 -4.55943458e-02 3.48615050e-02
      -9.12558846e-03 -3.03097162e-03 -8.34896136e-03 -2.31982302e-02
      2.94192657e-02 1.55531755e-02 -3.78154553e-02 -3.68637294e-02
      -1.85816512e-02 -1.85837388e-01 -8.73823985e-02 -5.02896197e-02
      3.69527354e-03 -1.63673460e-02 -3.32789086e-02 -6.70846505e-03
      1.53105259e-02 -3.82512547e-02 9.84780937e-02 2.76948954e-03
      -1.09976485e-01 -4.09621708e-02 1.87502205e-02 3.95079702e-02
      2.96914428e-02 -9.55728628e-03 -5.02888449e-02 2.87426673e-02
      1.09634586e-02 -3.78634781e-02 1.11874482e-02 -9.75164622e-02
      -2.09373347e-02 4.49722484e-02 -1.51270060e-02 5.56885116e-02
      -1.04629710e-01 1.88955087e-02 4.77441959e-02 1.73851829e-02
      3.40419486e-02 9.87089146e-03 1.01158567e-01 4.16626129e-03
      -5.74417934e-02 -2.24024504e-02 -2.46315915e-02 -1.04853339e-01
      4.48011383e-02 -9.43292491e-03 -3.66565846e-02 -7.57256448e-02
      7.42845833e-02 6.11994416e-02 6.31290302e-02 5.16694505e-03
      -5.60618304e-02 7.11861476e-02 -1.77751686e-02 5.40944152e-02
      -1.69563405e-02 -9.37170014e-02 -3.96132395e-02 4.53837328e-02
      1.60536598e-02 -5.21372631e-02 -1.08573418e-02 2.45241243e-02
      -4.87103574e-02 1.04052983e-01 -7.51027167e-02 2.59195957e-02
      1.05148606e-01 1.36180865e-02 2.78855823e-02 5.06370654e-03
      -5.34670949e-02 -7.29128271e-02 -1.31830409e-01 7.54768923e-02
      -3.74308415e-02 4.79306541e-02 2.37907544e-02 -1.25908777e-02
      9.76109058e-02 -9.24312025e-02 7.20728859e-02 4.23730426e-02
      -2.55587548e-02 -1.02703080e-01 -4.76225838e-02 -1.39564956e-02
      2.31939536e-02 -1.00651244e-02 -6.07902035e-02 -1.79239362e-02
      -4.97572497e-02 1.45252803e-02 5.64523414e-03 -1.54967168e-02
      4.62475186e-03 -6.00613952e-02 3.06078121e-02 1.35171050e-02
      4.67328466e-02 -1.60422679e-02 -2.97480542e-02 2.22972222e-02
      7.51112625e-02 -3.55585217e-02 5.19693247e-04 -2.50707474e-02
      5.03144972e-02 -1.02488669e-02 9.46352705e-02 -1.16121933e-01
      -2.97671016e-02 -3.98955867e-02 -1.29469922e-02 -5.06102443e-02
      3.84570695e-02 3.76359597e-02 4.93273176e-02 1.68743506e-02
      -1.26477284e-02 -6.58124452e-03 -2.90187541e-02 -1.01768091e-01
      -3.80339026e-02 -5.18039949e-02 8.55061598e-03 2.60041066e-04
      3.02479640e-02 6.00921512e-02 -2.07342170e-02 -6.60887593e-03
      -1.06246853e-02 5.14131300e-02 -8.16489533e-02 -5.16143590e-02
      -1.84208751e-02 -1.22153938e-01 1.59727409e-03 4.81016487e-02
      -5.38901687e-02 -3.44048329e-02 8.38292111e-03 -3.89493816e-02
      -4.15463001e-02 -3.22882943e-02 -5.52808456e-02 1.22428974e-02
      -6.13025501e-02 -3.95814404e-02 8.91594961e-03 -5.55046871e-02
      -1.71326887e-04 -4.59301323e-02 4.60518040e-02 1.11269830e-02
      -4.18211631e-02 3.82065028e-02 -5.19790389e-02 1.40192583e-02
      7.99523741e-02 -6.56190515e-02 4.13813666e-02 3.88773829e-02
      7.16917042e-04 -3.79228443e-02 5.05262427e-02 1.91715155e-02
      8.63087103e-02 3.76841649e-02 -1.28742645e-03</_></support_vectors>
  <decision_functions>
    <_>
      <sv_count>1</sv_count>
      <rho>-1.2453138068332261e+00</rho>
      <alpha>
        1.</alpha></_></decision_functions></opencv_ml_svm>
</opencv_storage>
